<?xml version="1.0"?>
<opencv_storage>
<stage19>
  <maxWeakCount>4</maxWeakCount>
  <stageThreshold>-1.8954493105411530e-02</stageThreshold>
  <weakClassifiers>
    <_>
      <internalNodes>
        0 -1 1261 -1056923600 1074024704 -2147336189 100663621 262785
        -1742700415 1140850690 1365295642</internalNodes>
      <leafValues>
        -7.7570092678070068e-01 5.1351350545883179e-01</leafValues></_>
    <_>
      <internalNodes>
        0 -1 3755 536276987 1673494009 -1107299457 2144185981
        -1074405585 1048436734 2113398647 796909564</internalNodes>
      <leafValues>
        -5.4851406812667847e-01 8.6574149131774902e-01</leafValues></_>
    <_>
      <internalNodes>
        0 -1 4866 -1593140412 1746472966 219152400 1695547394
        -1933041264 598212737 268491435 59081273</internalNodes>
      <leafValues>
        -7.1047133207321167e-01 7.2397994995117188e-01</leafValues></_>
    <_>
      <internalNodes>
        0 -1 34 -988232954 1094754305 3092 -176126887 269598739
        -2147483520 65666 -1996404070</internalNodes>
      <leafValues>
        -6.6677093505859375e-01 7.2651737928390503e-01</leafValues></_></weakClassifiers></stage19>
</opencv_storage>
